{"architecture":"{\"class_name\":\"Sequential\",\"config\":{\"name\":\"sequential_1\",\"layers\":[{\"class_name\":\"Dense\",\"config\":{\"units\":64,\"activation\":\"relu\",\"use_bias\":true,\"kernel_initializer\":{\"class_name\":\"VarianceScaling\",\"config\":{\"scale\":1,\"mode\":\"fan_avg\",\"distribution\":\"normal\",\"seed\":null}},\"bias_initializer\":{\"class_name\":\"Zeros\",\"config\":{}},\"kernel_regularizer\":null,\"bias_regularizer\":null,\"activity_regularizer\":null,\"kernel_constraint\":null,\"bias_constraint\":null,\"name\":\"dense_Dense1\",\"trainable\":true,\"batch_input_shape\":[null,15],\"dtype\":\"float32\"}},{\"class_name\":\"Dropout\",\"config\":{\"rate\":0.2,\"noise_shape\":null,\"seed\":null,\"name\":\"dropout_Dropout1\",\"trainable\":true}},{\"class_name\":\"Dense\",\"config\":{\"units\":32,\"activation\":\"relu\",\"use_bias\":true,\"kernel_initializer\":{\"class_name\":\"VarianceScaling\",\"config\":{\"scale\":1,\"mode\":\"fan_avg\",\"distribution\":\"normal\",\"seed\":null}},\"bias_initializer\":{\"class_name\":\"Zeros\",\"config\":{}},\"kernel_regularizer\":null,\"bias_regularizer\":null,\"activity_regularizer\":null,\"kernel_constraint\":null,\"bias_constraint\":null,\"name\":\"dense_Dense2\",\"trainable\":true}},{\"class_name\":\"Dropout\",\"config\":{\"rate\":0.2,\"noise_shape\":null,\"seed\":null,\"name\":\"dropout_Dropout2\",\"trainable\":true}},{\"class_name\":\"Dense\",\"config\":{\"units\":4,\"activation\":\"softmax\",\"use_bias\":true,\"kernel_initializer\":{\"class_name\":\"VarianceScaling\",\"config\":{\"scale\":1,\"mode\":\"fan_avg\",\"distribution\":\"normal\",\"seed\":null}},\"bias_initializer\":{\"class_name\":\"Zeros\",\"config\":{}},\"kernel_regularizer\":null,\"bias_regularizer\":null,\"activity_regularizer\":null,\"kernel_constraint\":null,\"bias_constraint\":null,\"name\":\"dense_Dense3\",\"trainable\":true}}]},\"keras_version\":\"tfjs-layers 4.22.0\",\"backend\":\"tensor_flow.js\"}","weights":[{"shape":[15,64],"data":[-0.056135401129722595,0.11227536201477051,0.11610947549343109,-0.11742597818374634,-0.20074883103370667,0.03182678669691086,-0.07100164145231247,0.037328481674194336,0.15792234241962433,-0.2067711502313614,-0.04883558675646782,0.002752130851149559,0.02436552383005619,-0.13451991975307465,-0.24265533685684204,0.05873565748333931,-0.12574130296707153,0.07244128733873367,-0.12037789076566696,0.057534944266080856,0.06802291423082352,0.057409513741731644,0.17444956302642822,-0.14244979619979858,-0.14437195658683777,-0.25168097019195557,0.03992545232176781,0.16946253180503845,-0.07464220374822617,-0.01482119970023632,0.04010237753391266,-0.2631193995475769,0.06026235595345497,-0.1652279943227768,-0.2981380820274353,0.07958012819290161,0.053239818662405014,-0.14853908121585846,-0.04178401082754135,0.17622968554496765,-0.2554667294025421,0.11047162115573883,0.1330897957086563,-0.17915305495262146,0.14491775631904602,0.12504495680332184,-0.052521202713251114,-0.19322560727596283,0.2616305649280548,-0.20376957952976227,-0.008507683873176575,0.07299217581748962,0.22246195375919342,-0.15099501609802246,0.23996631801128387,0.03372455760836601,0.004220888949930668,0.16503167152404785,0.24410758912563324,0.0036133541725575924,0.018609127029776573,0.27472367882728577,-0.2780696153640747,0.13458196818828583,0.08469391614198685,-0.27698850631713867,0.2089969515800476,-0.00743153877556324,0.33274441957473755,-0.09859734773635864,-0.1545839160680771,-0.21746337413787842,-0.011122905649244785,0.2333860546350479,-0.023821258917450905,0.28774237632751465,-0.1494491994380951,-0.09752342849969864,0.22213491797447205,-0.03326676785945892,-0.12262353301048279,-0.05874801427125931,-0.01629398949444294,0.21487802267074585,0.09743331372737885,0.0319938138127327,0.1344727873802185,-0.060776639729738235,-0.27783384919166565,0.15392528474330902,-0.1758303940296173,-0.0032798703759908676,-0.13695727288722992,0.01970224827528,0.05158387869596481,0.05603120103478432,-0.14098984003067017,-0.26014167070388794,0.00636567547917366,-0.008756573311984539,-0.011393697932362556,0.001186651410534978,0.22873204946517944,0.10727106034755707,-0.18157456815242767,-0.21122144162654877,-0.08778510987758636,-0.07689260691404343,0.08087706565856934,0.18895067274570465,0.12423529475927353,0.014208206906914711,0.02087584137916565,-0.031629107892513275,0.03245439752936363,-0.0303293876349926,-0.05204305425286293,-0.18334980309009552,-0.08958681672811508,0.11355245858430862,-0.01472597848623991,0.20199188590049744,0.03401932865381241,0.012144876644015312,-0.08946142345666885,-0.1900097131729126,-0.1752341240644455,0.08913382887840271,0.10886546969413757,0.044064342975616455,-0.26403510570526123,-0.019052259624004364,0.11267982423305511,0.025423971936106682,-0.15073931217193604,-0.13743509352207184,0.1691732108592987,0.09663628786802292,0.1385592222213745,-0.16357150673866272,-0.09184948354959488,0.07870199531316757,0.062451012432575226,0.013309757225215435,0.06046958640217781,-0.1335086077451706,-0.13905379176139832,-0.10209695994853973,-0.05233718827366829,0.016421938315033913,0.05111761391162872,-0.08582427352666855,0.07361989468336105,-0.011673553846776485,0.04647450149059296,0.25928089022636414,-0.2033643275499344,-0.04828311875462532,0.11976838111877441,-0.073099285364151,0.1586596816778183,-0.11010059714317322,-0.09905777871608734,0.01858983188867569,-0.18907476961612701,-0.15600034594535828,0.0174820888787508,0.2251879721879959,-0.13563911616802216,0.0420902818441391,0.00004783341501024552,0.2182270586490631,-0.062098726630210876,0.03468040004372597,0.11274603754281998,0.03482282534241676,0.16264300048351288,0.26069188117980957,0.1301628202199936,0.08965115994215012,0.09379087388515472,-0.13801990449428558,-0.010619101114571095,0.10318974405527115,-0.027656828984618187,-0.014994720928370953,0.09685203433036804,-0.04290146380662918,-0.1535802036523819,0.07517936080694199,-0.06179075315594673,-0.12328134477138519,-0.01769854873418808,0.051436543464660645,0.03737212345004082,-0.05575312674045563,0.018817875534296036,-0.023795928806066513,-0.19338828325271606,0.10979098826646805,0.1414782553911209,-0.01867334544658661,-0.14833642542362213,-0.11694713681936264,-0.1563052088022232,-0.06614617258310318,0.14612852036952972,-0.2521413266658783,0.2022712677717209,0.09306711703538895,-0.28384721279144287,-0.1653001457452774,0.05842495337128639,0.32573434710502625,-0.05565807223320007,-0.29888325929641724,0.1782141774892807,-0.05656399205327034,0.17645521461963654,-0.0063224365003407,0.0313434973359108,-0.20698919892311096,0.09821947664022446,0.07911847531795502,-0.10186918079853058,-0.14876236021518707,-0.05434781685471535,-0.21918433904647827,0.30514949560165405,0.0771145150065422,-0.1452820897102356,-0.029158946126699448,-0.12482547014951706,-0.08616723120212555,-0.24815280735492706,0.016448749229311943,0.02615797147154808,-0.06825218349695206,0.26801061630249023,0.08202254772186279,0.1260855346918106,0.1494452804327011,0.0845666453242302,-0.20104338228702545,0.037068843841552734,-0.2731267809867859,-0.11461666971445084,0.08558052033185959,-0.0627959594130516,-0.07945764809846878,-0.043011486530303955,-0.13271929323673248,0.07767777144908905,-0.1821429282426834,0.012567885220050812,-0.20506805181503296,-0.08057478070259094,-0.06581650674343109,-0.021823525428771973,-0.08438368141651154,0.035569898784160614,-0.15903790295124054,-0.10548706352710724,0.17832046747207642,0.044638823717832565,0.20605291426181793,-0.2589321434497833,-0.32346802949905396,-0.15103119611740112,-0.04936598986387253,0.16522356867790222,-0.07626641541719437,-0.08157067745923996,0.02101321332156658,0.0011657716240733862,0.18632769584655762,-0.02769426628947258,0.03457677364349365,0.013918323442339897,-0.26523590087890625,-0.19448664784431458,0.05927571654319763,-0.16287730634212494,-0.04688844457268715,-0.15060466527938843,0.12323746830224991,0.07566045224666595,-0.11137665808200836,0.15748146176338196,-0.07384690642356873,-0.10407485067844391,0.06074710935354233,-0.015949159860610962,-0.32174649834632874,0.10222922265529633,-0.22991244494915009,-0.13660117983818054,0.110434889793396,0.09036845713853836,0.14676149189472198,-0.26592227816581726,-0.2672765851020813,0.1408226490020752,0.09330995380878448,-0.17996074259281158,0.18507517874240875,-0.17671653628349304,-0.19145894050598145,0.21969345211982727,-0.1251986026763916,-0.06542964279651642,-0.2005801647901535,-0.10345613956451416,-0.1446193903684616,0.14142240583896637,0.012916004285216331,0.09656211733818054,0.2870420217514038,0.129577174782753,0.016137700527906418,0.15151721239089966,-0.08173983544111252,-0.08829764276742935,0.24688783288002014,-0.0746784582734108,0.2250814586877823,-0.15159183740615845,0.15270428359508514,0.05191381275653839,0.28834888339042664,-0.1957198530435562,-0.020931022241711617,-0.09937192499637604,-0.13819406926631927,0.1189190223813057,-0.19583933055400848,-0.28223901987075806,0.1632639765739441,-0.1085900291800499,-0.08107174932956696,-0.09303039312362671,0.1407749354839325,-0.28844016790390015,-0.23077437281608582,-0.03919295221567154,-0.0014664907939732075,0.20376960933208466,-0.16894324123859406,0.26234620809555054,-0.07674283534288406,0.2867222726345062,0.20037592947483063,0.10280349850654602,-0.1991509646177292,-0.24020522832870483,-0.18443956971168518,-0.058695562183856964,-0.04122032970190048,-0.16548021137714386,-0.2786230742931366,-0.009873243048787117,-0.13009533286094666,-0.057984910905361176,0.03679492324590683,-0.06137657165527344,0.02793811447918415,0.21466942131519318,-0.18528078496456146,0.07982764393091202,-0.1849263608455658,0.19095687568187714,-0.15005086362361908,0.1286778301000595,-0.06983520835638046,-0.12638983130455017,0.16867084801197052,-0.17382533848285675,0.0017937221564352512,-0.03535452112555504,-0.0007676699315197766,-0.15154968202114105,-0.08570859581232071,0.019283311441540718,-0.07345523685216904,-0.09757759422063828,0.12943035364151,-0.18871213495731354,0.11361910402774811,0.003911346662789583,0.23590588569641113,0.2602590024471283,-0.019421162083745003,0.1534692645072937,-0.13173216581344604,0.16260641813278198,0.11585531383752823,0.038651011884212494,0.26532045006752014,-0.2282882183790207,0.005675504915416241,-0.03251311182975769,0.1332007795572281,0.1578337848186493,-0.15836016833782196,0.24471844732761383,-0.019789474084973335,0.1164538711309433,0.11600782722234726,-0.013206049799919128,-0.16141623258590698,-0.058871347457170486,0.2277899980545044,0.1478617787361145,-0.3008767068386078,-0.009805587120354176,0.1967812478542328,-0.2128540575504303,-0.026182526722550392,-0.03712746128439903,-0.15768353641033173,0.2323349416255951,0.12503109872341156,-0.002021484775468707,0.27675822377204895,-0.07502776384353638,-0.12795916199684143,-0.002982111182063818,0.022252898663282394,0.012446500360965729,-0.060840655118227005,0.10685741901397705,-0.12738649547100067,-0.22691357135772705,0.2711127996444702,-0.1891344040632248,-0.11703739315271378,0.08899495005607605,0.1430503875017166,0.0459124930202961,-0.02304127626121044,-0.31776943802833557,0.09225170314311981,-0.0008083925931714475,-0.1953725814819336,-0.0776616707444191,0.1082197055220604,0.11802633106708527,-0.12381391227245331,0.04471179470419884,0.19948403537273407,0.09805614501237869,-0.023627737537026405,-0.2567794620990753,-0.14743243157863617,0.007219461724162102,0.06452033668756485,-0.050363168120384216,0.12893527746200562,0.07802753150463104,-0.11842552572488785,-0.22923515737056732,-0.06781681627035141,-0.057294417172670364,-0.14463017880916595,0.17903722822666168,-0.06077542155981064,-0.12408795207738876,-0.21076767146587372,-0.24802224338054657,0.028296200558543205,-0.10721923410892487,0.17038437724113464,-0.05946267396211624,0.09507228434085846,-0.20128262042999268,0.0951278954744339,0.06701803207397461,0.1338343322277069,-0.15859156847000122,0.17300795018672943,-0.005071731749922037,-0.2018059492111206,0.08183850347995758,0.1648322343826294,-0.13919778168201447,0.08666377514600754,0.023863904178142548,0.07419105619192123,0.2859688997268677,0.004594981670379639,-0.31664758920669556,0.1141103133559227,0.10680026561021805,0.28036221861839294,-0.14020530879497528,0.03669416904449463,-0.07306472957134247,0.3299040198326111,0.08291441947221756,0.11001177877187729,-0.16546036303043365,-0.019270895048975945,-0.20346146821975708,-0.26558855175971985,-0.18608103692531586,0.23653221130371094,0.032759930938482285,0.07348296046257019,-0.07151719927787781,-0.057784583419561386,0.059708867222070694,0.2675550878047943,0.14922289550304413,-0.0037440985906869173,-0.02691112458705902,-0.20805077254772186,0.07448210567235947,0.11250048130750656,0.09706734120845795,-0.02909575030207634,0.1974165290594101,0.11415231227874756,-0.057799991220235825,0.060796212404966354,-0.17594704031944275,-0.058133672922849655,-0.1412469446659088,-0.12367627024650574,0.09417957067489624,0.2749650478363037,0.06709282100200653,0.04969073459506035,-0.08478152751922607,0.13402873277664185,0.1369381695985794,0.0026095760986208916,-0.17301511764526367,-0.25090837478637695,-0.013035482726991177,-0.17488087713718414,0.01809564046561718,-0.1925065517425537,-0.022555388510227203,0.016524169594049454,-0.09268523007631302,-0.1885875165462494,-0.034881435334682465,0.05285490304231644,0.19197696447372437,0.23772789537906647,0.22892434895038605,0.2868347764015198,-0.09407276660203934,0.022112518548965454,0.1908155232667923,0.09187401086091995,-0.07014677673578262,-0.13002528250217438,0.1487531214952469,0.0071601103991270065,-0.23827949166297913,-0.059646300971508026,0.06823498755693436,0.08605576306581497,-0.150480255484581,0.09719955921173096,0.06261000037193298,0.05707570165395737,-0.058097321540117264,0.07672411948442459,-0.28553107380867004,-0.09076257795095444,-0.024361502379179,0.10584467649459839,0.022366568446159363,0.03411342576146126,0.043349288403987885,-0.08681980520486832,-0.12620775401592255,-0.13428492844104767,0.2996295690536499,0.25313252210617065,-0.1946103423833847,-0.1080932468175888,0.04976469650864601,0.2813819646835327,0.14742331206798553,-0.053995199501514435,0.12518718838691711,-0.03829341009259224,0.2895706593990326,-0.18643873929977417,-0.035819679498672485,0.10883250832557678,0.0998196229338646,0.013976529240608215,-0.03065268136560917,0.16586588323116302,-0.18195034563541412,-0.08976197987794876,0.047773703932762146,-0.0060506113804876804,-0.22700314223766327,0.0025336199905723333,-0.13423176109790802,-0.17804794013500214,0.1932029277086258,0.10188698768615723,0.16837115585803986,-0.02837340719997883,-0.08162342756986618,-0.2882394790649414,0.1401892900466919,-0.16606508195400238,0.017030376940965652,0.07553466409444809,0.07928194105625153,-0.057501617819070816,-0.06112748384475708,-0.029111145064234734,-0.13022109866142273,-0.14107480645179749,-0.16392360627651215,-0.2975541949272156,-0.15209393203258514,0.05512053146958351,-0.13842447102069855,-0.07991057634353638,0.1006120890378952,0.13864485919475555,-0.03985145688056946,0.048169076442718506,0.03358641639351845,0.0002965941093862057,0.0478779599070549,0.2642904222011566,0.06344360113143921,-0.1364627480506897,0.18960171937942505,-0.05504939332604408,0.20768608152866364,0.07180287688970566,-0.10062690079212189,-0.010397282429039478,0.16050143539905548,-0.05956701189279556,0.19630573689937592,-0.27036604285240173,0.07774322479963303,-0.03825085982680321,0.1756438910961151,-0.127705380320549,-0.18345801532268524,0.1778542399406433,0.07561443001031876,-0.16736343502998352,0.20157106220722198,0.2262200266122818,-0.021082470193505287,-0.12611433863639832,0.06095370650291443,0.10177785903215408,-0.1787930130958557,0.13286088407039642,0.14988647401332855,0.10762298852205276,-0.04737353324890137,0.08045289665460587,-0.15752661228179932,0.12255922704935074,-0.137165367603302,0.28366854786872864,-0.02071182243525982,0.021130962297320366,-0.1724795699119568,0.146432027220726,0.13879603147506714,-0.2755412757396698,0.07861772179603577,0.1567421853542328,0.05763893947005272,-0.15197312831878662,0.06030736863613129,0.16233722865581512,0.015787839889526367,-0.17112410068511963,-0.01620424911379814,-0.08291516453027725,0.26339778304100037,-0.12154287099838257,-0.026110410690307617,-0.06362621486186981,-0.02134104073047638,0.2907228171825409,0.1511276662349701,-0.12733718752861023,-0.24179446697235107,0.11432965099811554,0.12157608568668365,0.2581295073032379,0.07370825856924057,0.24191607534885406,-0.28350773453712463,-0.021360348910093307,0.1054028645157814,0.0708523690700531,0.11034732311964035,0.16901500523090363,0.1797301173210144,0.006026951130479574,-0.16478438675403595,0.14231936633586884,-0.07764806598424911,-0.23435905575752258,0.26070162653923035,-0.10491935908794403,0.15127979218959808,-0.013966547325253487,0.07974787056446075,-0.18407203257083893,0.10410945862531662,0.20347855985164642,0.04177917167544365,-0.026662321761250496,-0.04851727932691574,0.05924712121486664,-0.03332230821251869,-0.01794908009469509,-0.10579134523868561,-0.08288128674030304,-0.17885076999664307,0.19866956770420074,-0.06695271283388138,0.17654766142368317,-0.03299697861075401,0.21566471457481384,0.24456357955932617,-0.061547234654426575,0.09278874099254608,-0.12048740684986115,-0.0009501351159997284,-0.041081853210926056,0.13645218312740326,-0.006496998947113752,0.24593442678451538,-0.01434357650578022,-0.2673303782939911,0.17262981832027435,-0.0012848663609474897,0.054356466978788376,0.2382059395313263,0.04845594987273216,-0.0978977233171463,0.06727275252342224,-0.029957406222820282,-0.06173621863126755,0.0415223203599453,-0.13039585947990417,-0.019448556005954742,-0.03313446789979935,0.25558099150657654,0.08224587887525558,0.13339067995548248,-0.027293454855680466,0.08973308652639389,-0.11505652219057083,-0.21201109886169434,0.2091732770204544,-0.006140484474599361,0.2093818038702011,-0.07818736881017685,0.19819553196430206,-0.02314300276339054,0.048746686428785324,-0.270063191652298,-0.20647753775119781,0.0940980315208435,-0.07212827354669571,0.031580016016960144,0.2361868917942047,0.11439406126737595,-0.1675974726676941,0.006086516194045544,0.006056190934032202,0.18519237637519836,0.0021720281802117825,0.20738090574741364,0.12008344382047653,-0.02509692683815956,0.26526620984077454,0.21046198904514313,-0.0891997367143631,-0.22270554304122925,-0.023951634764671326,0.1026931181550026,0.02533603459596634,-0.14312510192394257,-0.07046836614608765,-0.2115933895111084,-0.13101141154766083,0.18440958857536316,0.0822531208395958,0.06718943268060684,-0.2136029750108719,-0.17082282900810242,0.17172272503376007,0.1270260065793991,0.25072139501571655,0.1843486875295639,-0.18965548276901245,-0.0009099069866351783,-0.11065737158060074,0.10875492542982101,0.05011693760752678,0.21744397282600403,-0.27126356959342957,0.1587679237127304,0.017162825912237167,0.08181280642747879,0.1580296754837036,0.03335064649581909,-0.10899566113948822,-0.023195942863821983,-0.033079683780670166,0.2389715164899826,-0.07200990617275238,-0.01604839414358139,-0.0670698806643486,-0.09367230534553528,-0.21910634636878967,0.1932801455259323,-0.08135885000228882,-0.08566546440124512,0.02042984589934349,0.11233026534318924,0.08217998594045639,-0.19902130961418152,0.13427869975566864,0.011958498507738113,0.24994128942489624,0.024098951369524002,0.15584148466587067,-0.1373693346977234,-0.24104055762290955,-0.09604883193969727,-0.18313437700271606,0.11849884688854218,-0.18098056316375732,-0.09367050230503082,-0.05654909089207649,-0.11639469861984253,-0.05812454596161842,-0.1466684639453888,0.12559781968593597,-0.07022798806428909,0.1182510256767273,0.2554442882537842,0.04864535480737686,0.022677889093756676,0.21037404239177704,-0.2640206217765808,-0.08996497094631195,-0.22803716361522675,0.3150162398815155,-0.06699736416339874,0.17102102935314178,-0.21076540648937225,0.13972263038158417,0.018924685195088387,-0.16043998301029205,0.13591007888317108,-0.00781287346035242,-0.24323566257953644,-0.12176845222711563,-0.14960068464279175,0.04771379753947258,0.15658755600452423,0.10180717706680298,-0.07077350467443466,0.19424623250961304,0.0678214356303215,-0.1478310376405716,-0.09588710963726044,-0.08598439395427704,-0.15320225059986115,0.02884812466800213,0.00669605378061533,-0.23430564999580383,-0.28904008865356445,0.04897076264023781,-0.1840139776468277,-0.30789288878440857,-0.014784391038119793,-0.1995505839586258,-0.27671560645103455,-0.1085808202624321,0.10267389565706253,0.03420943766832352,-0.11737992614507675,0.275036484003067,0.07872578501701355,-0.03342549502849579,-0.07372394949197769,-0.033169787377119064,0.20939265191555023,-0.15180142223834991,0.06480330973863602,0.10667524486780167,-0.05874286964535713,-0.05814593657851219,0.09255742281675339,0.0993323028087616,-0.0426550954580307,-0.007501920685172081,0.09998979419469833,-0.053198158740997314,0.06473246961832047,0.13483473658561707,-0.06595320254564285,-0.19466084241867065,-0.1837841272354126,0.103064626455307,0.2864964008331299,0.08437943458557129,0.18869879841804504,0.008838394656777382,0.09037835896015167,0.0395423099398613,-0.16043324768543243,0.13395404815673828,0.243239164352417,0.30159083008766174,-0.05099717527627945,0.05684634670615196,0.08460243791341782,-0.023686904460191727,0.06226504594087601,-0.022256601601839066,-0.0010044568916782737,0.04975495859980583,0.06314168125391006,-0.08252254873514175,0.3231884241104126,0.08081866800785065,-0.003232385963201523,0.1938926875591278,-0.13146886229515076,-0.0825546532869339,-0.16424761712551117,-0.06722284108400345,0.28255695104599,-0.10520666837692261,0.3080121874809265,0.00795381236821413,0.016264043748378754,0.09872119128704071,-0.010176490060985088,-0.18010231852531433,0.16192564368247986,-0.06741148978471756]},{"shape":[64],"data":[0.03338406980037689,-0.020869921892881393,-0.01710146851837635,0.036861203610897064,0.02753331884741783,0.027540523558855057,0,0.0008244072087109089,0.039494384080171585,0.018305717036128044,0.027054881677031517,0.032030291855335236,0,-0.024290744215250015,0.020598387345671654,-0.014379426836967468,0.011254013516008854,0.03611328452825546,0,-0.022937435656785965,0.010892003774642944,0.018557462841272354,-0.0152732627466321,0,0,0,-0.02884654328227043,0.009763096459209919,0,0,-0.015125882811844349,0.00606232974678278,0.03973489999771118,0,0,0.03768903762102127,0.025254668667912483,-0.01036811713129282,0.015368699096143246,-0.006408507935702801,-0.005964784882962704,0,-0.01536461804062128,-0.011087149381637573,-0.016597578302025795,0.044593602418899536,0.027499614283442497,0,0.03697574883699417,0.032034389674663544,0.003592870431020856,0,0.022945823147892952,0,0.011718749068677425,-0.0006691767484880984,0,0.028778748586773872,-0.001886575249955058,-0.02218742109835148,0,-0.021019788458943367,-0.013962485827505589,-0.001973038539290428]},{"shape":[64,32],"data":[-0.08384504169225693,0.05995245277881622,0.07281377166509628,-0.026827113702893257,-0.011082576587796211,0.00998660922050476,0.07754576951265335,-0.17437000572681427,0.04383286088705063,-0.09528977423906326,0.1576373428106308,0.16329777240753174,0.21786557137966156,-0.15328951179981232,0.02949547953903675,0.2652375102043152,-0.09013397246599197,-0.1164124608039856,-0.1886410266160965,0.07538638263940811,-0.1192244291305542,0.24902236461639404,0.0771334171295166,0.03352729231119156,0.01970074139535427,0.057371702045202255,-0.0033012593630701303,-0.10461132973432541,-0.022324765101075172,-0.13721638917922974,0.22391243278980255,-0.0767735168337822,-0.03301870450377464,-0.032460734248161316,0.2280103713274002,-0.25675907731056213,0.17775294184684753,0.037453774362802505,-0.2673824429512024,0.07880154252052307,0.004897582810372114,0.07115045189857483,0.01721685193479061,-0.1240498349070549,-0.013989027589559555,0.07740850001573563,-0.07913133502006531,-0.10466136038303375,0.11992467939853668,0.22765009105205536,-0.22275424003601074,0.17366915941238403,0.11249412596225739,0.18489886820316315,-0.008949534967541695,0.15565147995948792,0.08739171177148819,0.14152657985687256,0.19090726971626282,0.22189481556415558,0.030300306156277657,0.021325571462512016,-0.08769688010215759,-0.029943298548460007,-0.054523248225450516,-0.07885845005512238,0.13201408088207245,0.06259675323963165,-0.13922439515590668,-0.16278024017810822,0.0377100333571434,-0.06708157807588577,0.11993756145238876,0.16783426702022552,-0.02807663194835186,0.008463108912110329,0.18679043650627136,-0.16074813902378082,-0.19809293746948242,0.007405529730021954,0.0551549568772316,-0.20815253257751465,-0.2781427502632141,-0.09643974155187607,-0.2501484751701355,-0.015481307171285152,-0.05942242965102196,-0.20412087440490723,0.08295442909002304,0.1981310397386551,-0.04200368747115135,0.11632236838340759,-0.10634604096412659,-0.08466143161058426,0.109920933842659,0.09115845710039139,0.11149770021438599,0.023015907034277916,-0.14772309362888336,0.02088729478418827,-0.005454505793750286,-0.03090236522257328,0.03868357464671135,0.00423276936635375,-0.09033771604299545,-0.09753379970788956,-0.014894440770149231,-0.3274576961994171,0.24059273302555084,0.10769263654947281,0.1912112683057785,0.13893426954746246,-0.1633034646511078,-0.07299002259969711,0.16062386333942413,0.28310003876686096,-0.129398375749588,0.25532495975494385,0.1193636879324913,0.07436081767082214,-0.1370571255683899,0.02056761644780636,-0.055637065321207047,-0.22329284250736237,-0.04227028042078018,0.14520573616027832,0.14140893518924713,-0.15456368029117584,0.04852421581745148,-0.08774375915527344,-0.051808539777994156,0.10554772615432739,0.10167276114225388,0.2735683023929596,0.005195215810090303,-0.04320066422224045,-0.022803695872426033,0.07140006870031357,0.15527848899364471,-0.16164571046829224,0.010733300819993019,-0.18099220097064972,-0.09344727545976639,0.11999291181564331,-0.21944484114646912,-0.11295350641012192,-0.21361413598060608,-0.012307570315897465,-0.0387333407998085,-0.012897354550659657,0.21705716848373413,-0.05999556556344032,0.00658542662858963,0.05303357169032097,-0.06931057572364807,0.039802514016628265,0.20527920126914978,0.0945628359913826,0.05442093312740326,0.2132154405117035,0.22885526716709137,0.012162156403064728,-0.09242968261241913,-0.03385695442557335,-0.02562064863741398,0.127125084400177,-0.2092515528202057,0.028826411813497543,0.015438088215887547,-0.08763479441404343,0.01874946802854538,-0.06784560531377792,0.0099469143897295,-0.010305513627827168,0.21005775034427643,0.16551989316940308,-0.18089066445827484,-0.16379128396511078,-0.20860344171524048,-0.022973064333200455,-0.20473909378051758,0.20632459223270416,-0.0587773397564888,-0.07304227352142334,0.10236627608537674,-0.06351472437381744,0.11204983294010162,0.05488619953393936,0.09429163485765457,-0.14285926520824432,0.07327177375555038,-0.13355004787445068,-0.18349602818489075,-0.08549393713474274,-0.06637008488178253,0.042243197560310364,-0.08553368598222733,-0.15039828419685364,0.10145830363035202,0.22764790058135986,-0.20618867874145508,0.09424710273742676,-0.23273591697216034,0.006983638275414705,-0.005133964587002993,0.050143979489803314,-0.13017000257968903,-0.14470995962619781,-0.11412481963634491,0.2795264422893524,-0.21319480240345,0.03963795676827431,0.025103487074375153,-0.03150445967912674,-0.020245002582669258,-0.0829412117600441,0.13185539841651917,0.2507985830307007,-0.14617305994033813,-0.26184940338134766,0.2679930329322815,0.015251091681420803,-0.013295530341565609,0.12530440092086792,-0.018721843138337135,0.06003668159246445,0.02753271721303463,-0.30274224281311035,0.07861308008432388,-0.11676792800426483,-0.04784397780895233,-0.1159915179014206,0.13595496118068695,-0.08300235122442245,-0.009898010641336441,-0.18881911039352417,0.19872786104679108,-0.006560781970620155,-0.24265563488006592,0.24780575931072235,-0.0751952975988388,-0.012830449268221855,-0.19585683941841125,-0.11290695518255234,0.06259029358625412,0.16193893551826477,-0.28361964225769043,-0.24444939196109772,-0.20707537233829498,-0.13298095762729645,-0.21803365647792816,0.10755014419555664,0.3266380727291107,0.08380722254514694,0.07746951282024384,0.1370173692703247,-0.1142498254776001,0.11426030844449997,-0.03918834775686264,0.05461351200938225,-0.24384719133377075,0.14320556819438934,0.012919960543513298,-0.10162720084190369,-0.21077628433704376,-0.1346137523651123,-0.012831129133701324,0.2754628360271454,0.02360907383263111,-0.03293384984135628,0.23767194151878357,0.26154282689094543,0.04455433040857315,-0.05703367292881012,-0.016452381387352943,0.05338166281580925,0.09115724265575409,-0.02740277722477913,-0.14778220653533936,-0.10118035972118378,-0.028543876484036446,0.16236671805381775,-0.1400078982114792,-0.03656637668609619,0.273906409740448,-0.08373090624809265,-0.05027085542678833,0.04363521188497543,0.2282886654138565,-0.19657304883003235,0.08695414662361145,-0.10232757776975632,0.09501466155052185,0.04329482093453407,-0.08401674777269363,0.13071660697460175,0.01367597933858633,-0.004917335696518421,-0.06315605342388153,0.053786542266607285,-0.0265660360455513,0.0325462631881237,-0.029307279735803604,-0.053451430052518845,-0.029712822288274765,0.12402079254388809,-0.013816543854773045,-0.1722734570503235,0.10915600508451462,0.07853458821773529,0.24778300523757935,-0.2521398663520813,-0.027016963809728622,0.10038205981254578,0.1412639319896698,-0.2649649381637573,0.13199098408222198,-0.08810678124427795,0.14902465045452118,0.07821640372276306,-0.03503891080617905,0.1668165773153305,0.031548529863357544,0.08847174793481827,-0.18812333047389984,-0.0863129198551178,-0.2311413735151291,-0.11999499797821045,-0.07087110728025436,-0.022418875247240067,-0.208736389875412,-0.016019340604543686,0.1149352416396141,-0.04117674008011818,-0.05942080542445183,-0.20757713913917542,-0.22387616336345673,0.11394624412059784,0.10373221337795258,-0.012402791529893875,-0.08959139138460159,-0.21010041236877441,0.08897705376148224,-0.06570836901664734,-0.014841623604297638,-0.022573821246623993,0.06234363466501236,0.27356788516044617,0.15911468863487244,0.2650819718837738,0.010007751174271107,0.03131556510925293,-0.04036114737391472,0.10110040009021759,0.09510582685470581,-0.20652541518211365,0.16210855543613434,0.1488509476184845,-0.16705985367298126,-0.13938431441783905,-0.06853854656219482,-0.03400861471891403,0.011164387688040733,0.14848119020462036,0.020098526030778885,0.10146736353635788,0.04939429834485054,0.16802667081356049,0.06300992518663406,0.002980240387842059,0.14995558559894562,0.2209143042564392,0.11991174519062042,0.039400290697813034,0.07328139245510101,0.15377312898635864,-0.12832646071910858,0.05789031460881233,-0.014055018313229084,0.1403934508562088,0.07192705571651459,0.1053706482052803,-0.14288847148418427,0.031097790226340294,0.05551096424460411,0.04339965060353279,-0.027685726061463356,0.05075475573539734,0.04715004563331604,-0.06355516612529755,-0.1817948818206787,-0.174287810921669,0.2387097030878067,-0.06782182306051254,0.21495778858661652,0.20343248546123505,-0.1714896857738495,0.02521638199687004,0.13083572685718536,0.18392126262187958,0.12518702447414398,0.15142139792442322,-0.2528174817562103,-0.072522833943367,-0.18970555067062378,-0.19733132421970367,-0.0199652798473835,0.058686234056949615,0.2363360971212387,0.11371371150016785,-0.07391954958438873,0.28689393401145935,0.07008849084377289,-0.02440687268972397,0.04571230709552765,-0.03554379940032959,-0.025753747671842575,-0.023691197857260704,-0.01081340666860342,0.12300971895456314,-0.10243498533964157,-0.0708589181303978,0.06580284237861633,0.018507353961467743,0.1427265703678131,-0.029028380289673805,-0.1473013162612915,-0.1929597109556198,-0.264575719833374,-0.011561409570276737,0.04498216509819031,-0.0009918530704453588,-0.0943182185292244,-0.15677191317081451,-0.08860145509243011,0.18797120451927185,-0.11130303144454956,-0.0033556183334439993,-0.13448242843151093,0.06316717714071274,-0.024526622146368027,-0.034106895327568054,-0.001026393030770123,0.23538891971111298,0.0257248692214489,-0.007900580763816833,0.05688152834773064,-0.18379440903663635,0.25087830424308777,-0.05182573199272156,0.01498455461114645,0.09999211877584457,0.0985742062330246,-0.227890744805336,0.12978790700435638,0.1588543951511383,-0.06917103379964828,0.03380043804645538,0.0231389831751585,-0.07376248389482498,0.22865204513072968,0.10999973118305206,0.04486427456140518,0.04289459437131882,0.03070385754108429,-0.2227260172367096,-0.18409623205661774,0.22819946706295013,-0.128470778465271,0.10681598633527756,0.06259851157665253,0.22706915438175201,0.24585726857185364,0.21959947049617767,0.20763686299324036,0.04100695252418518,0.13547848165035248,0.07023849338293076,0.232663094997406,0.044784776866436005,-0.02304212935268879,-0.1078302264213562,0.004249682184308767,-0.11302682757377625,-0.06568534672260284,-0.07439500093460083,0.10425417125225067,-0.25414538383483887,0.050401825457811356,-0.06754721701145172,0.08539625257253647,-0.07091294974088669,-0.19501839578151703,0.1444224715232849,0.21558284759521484,-0.12491299211978912,-0.0439143143594265,-0.014207189902663231,-0.07199616730213165,0.04034121334552765,-0.1332288682460785,0.10291341692209244,-0.21933594346046448,0.024342477321624756,0.11985985189676285,0.050783269107341766,-0.15381935238838196,-0.17741918563842773,-0.015240514650940895,-0.10054747760295868,0.05920488387346268,0.13633684813976288,0.21693207323551178,-0.11380359530448914,-0.14304231107234955,-0.05698171257972717,0.03827713429927826,-0.008788234554231167,0.06164482608437538,0.09089042991399765,-0.0908028855919838,-0.09331749379634857,-0.0844959020614624,-0.09939578920602798,0.15076066553592682,-0.12814383208751678,-0.07551082968711853,0.0220269113779068,-0.15781380236148834,-0.03756069019436836,-0.2230430245399475,-0.025329165160655975,0.09155677258968353,0.029666541144251823,-0.012677803635597229,0.08420567214488983,0.04443586990237236,-0.2133972942829132,0.15488968789577484,-0.033331550657749176,0.011254817247390747,-0.23438125848770142,-0.060307856649160385,-0.13597922027111053,0.03006366454064846,0.24489350616931915,-0.12603066861629486,0.05905761569738388,0.18028241395950317,0.029261279851198196,-0.30118849873542786,-0.03864261135458946,-0.024526316672563553,-0.12093356251716614,0.05712441727519035,0.13235504925251007,-0.19116666913032532,-0.033152930438518524,-0.08840566128492355,0.0972304567694664,-0.12856213748455048,0.12735609710216522,-0.00973474606871605,0.01152400765568018,-0.21508720517158508,0.1754555106163025,-0.061295244842767715,-0.13908371329307556,0.008618916384875774,0.1556745022535324,-0.027955742552876472,-0.014823760837316513,0.25600486993789673,0.16904199123382568,0.007663278374820948,-0.06943292915821075,0.2256094217300415,-0.08282174170017242,0.2644776701927185,-0.11679262667894363,-0.04710964486002922,-0.06876996904611588,-0.10832735896110535,0.0943036749958992,-0.18131567537784576,-0.28131505846977234,0.2856467366218567,-0.16992509365081787,-0.05656128004193306,0.19915951788425446,0.1284058690071106,-0.008786976337432861,-0.08328511565923691,-0.05208449810743332,0.10493769496679306,0.01700005494058132,-0.1392720341682434,-0.13616801798343658,0.007513266522437334,-0.11717542260885239,-0.009666047058999538,-0.018832353875041008,0.21043996512889862,-0.03963948413729668,-0.017612788826227188,0.1995873749256134,0.020871900022029877,-0.14012321829795837,0.0802769809961319,0.011303916573524475,-0.09645803272724152,-0.010991648770868778,0.13217492401599884,-0.12647280097007751,0.03891593962907791,-0.07585228234529495,0.021252432838082314,0.1411067098379135,0.1864246129989624,-0.08634389936923981,-0.18644021451473236,0.06824332475662231,-0.1174466535449028,-0.01818854548037052,-0.26106563210487366,-0.1509353369474411,-0.019517263397574425,0.12643571197986603,0.028430292382836342,0.26907238364219666,0.03593215346336365,0.012468383647501469,0.03770265728235245,-0.16311931610107422,0.08765418827533722,0.20950883626937866,-0.02218087948858738,-0.012511992827057838,0.1884179562330246,-0.17079462110996246,-0.17105111479759216,0.14388053119182587,0.16498702764511108,0.11142054945230484,-0.237714946269989,0.07711023837327957,-0.08940048515796661,-0.11804305016994476,-0.18365195393562317,0.0557434968650341,-0.015929969027638435,0.09101513773202896,-0.07256253808736801,-0.023019373416900635,-0.02447877824306488,-0.11389695107936859,-0.16453707218170166,-0.04131757467985153,-0.011332618072628975,-0.19161657989025116,-0.19772203266620636,-0.09304133802652359,0.046175748109817505,-0.009956247173249722,-0.14184895157814026,0.06371792405843735,-0.23009346425533295,-0.15689370036125183,0.022750351577997208,0.021640494465827942,-0.025813013315200806,-0.1129823550581932,-0.10812871903181076,-0.05370618402957916,0.1514081209897995,-0.22324146330356598,-0.0733141303062439,-0.19784724712371826,-0.03621560335159302,0.12375815957784653,0.1743801087141037,-0.1244380995631218,-0.01989407278597355,0.0392596572637558,0.25053465366363525,0.030406368896365166,0.07469972968101501,0.21061323583126068,0.13337354362010956,-0.12752781808376312,0.011084094643592834,0.03595327213406563,0.16463826596736908,0.28917208313941956,0.24508172273635864,0.017868373543024063,0.062184665352106094,-0.24465008080005646,-0.014157411642372608,0.08890574425458908,-0.006091004237532616,-0.30758965015411377,0.037951890379190445,-0.008045103400945663,-0.01755678653717041,0.004478847607970238,-0.05469977855682373,0.10323493182659149,0.060820601880550385,-0.16467303037643433,-0.04220215231180191,0.0040219067595899105,-0.00559554947540164,-0.1444852203130722,-0.23856288194656372,-0.2232019156217575,-0.030841726809740067,0.20660088956356049,0.25274690985679626,0.14203621447086334,-0.005561388097703457,0.04535378888249397,0.1917424350976944,0.11551043391227722,0.07896440476179123,-0.048936087638139725,0.09371596574783325,-0.26715710759162903,0.01592537760734558,0.0323881059885025,-0.1812058687210083,0.011268844828009605,0.16734576225280762,0.23077797889709473,0.09356950968503952,0.0947578027844429,-0.20078252255916595,-0.011835634708404541,-0.09094037115573883,0.1472066342830658,-0.05709697678685188,0.03454037755727768,-0.15352167189121246,0.020376084372401237,-0.11279093474149704,-0.12948790192604065,0.21193766593933105,0.018396325409412384,0.03214937448501587,-0.13904665410518646,-0.14837588369846344,0.10246066749095917,0.10392849147319794,0.11100007593631744,-0.024745721369981766,-0.046237558126449585,0.19684980809688568,-0.06919527798891068,0.21967215836048126,0.10833991318941116,-0.14720983803272247,-0.04743127152323723,-0.07602148503065109,0.18384814262390137,0.09523769468069077,-0.032813556492328644,-0.1598391830921173,0.09900578111410141,-0.07857823371887207,-0.1052078828215599,-0.11619668453931808,-0.0183276180177927,0.2325582057237625,0.0009809128241613507,-0.14604027569293976,-0.10366351902484894,0.03837890923023224,0.1435687243938446,0.06655547022819519,0.11096459627151489,0.15794770419597626,-0.23358409106731415,0.010142275132238865,0.1906423568725586,-0.12489331513643265,-0.07577335834503174,-0.004231574945151806,0.04096085578203201,-0.1005549505352974,0.1935790777206421,-0.0013801328605040908,0.04309294745326042,0.06433283537626266,0.0679493099451065,-0.17771410942077637,0.0468810498714447,0.10683760792016983,0.007111165206879377,0.07568314671516418,-0.23280194401741028,0.10524318367242813,0.06030726060271263,0.18141980469226837,0.012272588908672333,0.17673012614250183,0.05139725282788277,-0.18469558656215668,-0.13969765603542328,-0.177068829536438,-0.06829883903265,-0.06055700406432152,-0.05166040360927582,0.08539135009050369,0.17236262559890747,-0.07339735329151154,0.16311149299144745,-0.1217799112200737,-0.11408120393753052,0.024366488680243492,0.13289278745651245,-0.13538019359111786,-0.0011157424887642264,-0.00410542543977499,0.04477925971150398,-0.1722785383462906,0.17590297758579254,-0.015744740143418312,-0.010404338128864765,0.110555499792099,-0.1407596617937088,-0.005349001381546259,-0.051723890006542206,-0.028403853997588158,-0.20695896446704865,0.06217401474714279,-0.00829644501209259,-0.025682544335722923,0.05403677746653557,0.2193709760904312,-0.16517402231693268,0.10000385344028473,0.10857310891151428,0.055232346057891846,0.0860760286450386,0.20116659998893738,-0.08703100681304932,0.18331435322761536,0.06195105239748955,-0.1737210601568222,0.19216378033161163,-0.06558805704116821,0.02302565984427929,-0.25507786870002747,0.18304020166397095,-0.025503816083073616,-0.10697050392627716,-0.2277257889509201,-0.07431069016456604,0.061196405440568924,0.00791030190885067,-0.1342652142047882,-0.09955419600009918,0.06305938959121704,-0.17711208760738373,-0.1633901298046112,-0.16929364204406738,-0.07017117738723755,0.16164033114910126,-0.07111162692308426,0.1981957107782364,-0.011676874943077564,0.18756604194641113,0.061652470380067825,-0.017468638718128204,0.0880529060959816,-0.018985150381922722,-0.12348967045545578,-0.20012159645557404,-0.1474936157464981,0.03311970829963684,-0.025932129472494125,0.09939183294773102,0.1586528867483139,-0.08016078174114227,0.16415399312973022,0.08912549912929535,-0.13443362712860107,0.12421748787164688,0.038243964314460754,0.12877866625785828,0.07913227379322052,-0.14529724419116974,0.016393572092056274,0.06098543107509613,-0.07076523452997208,0.054638154804706573,-0.05046318098902702,0.0861176922917366,0.053554460406303406,-0.09105956554412842,-0.06755261868238449,-0.10607434809207916,0.09924086183309555,0.11503046751022339,0.06561512500047684,0.1887989044189453,0.1517113894224167,-0.07302079349756241,0.02224680967628956,0.12382851541042328,0.0834207683801651,-0.007526698987931013,-0.1985265016555786,-0.12406868487596512,-0.033651579171419144,-0.1131487637758255,-0.2062728852033615,0.22560866177082062,-0.12174028903245926,-0.05810219421982765,0.20912793278694153,-0.02199040725827217,-0.1323770135641098,-0.08016198873519897,0.02483917959034443,0.2631579339504242,0.0294862799346447,-0.049385424703359604,-0.07755911350250244,0.0652812048792839,0.15057429671287537,-0.26496967673301697,-0.0984681025147438,-0.0750860869884491,0.11382869631052017,0.15065203607082367,0.08872410655021667,0.20796529948711395,-0.11192367225885391,0.0013393404660746455,0.01627739518880844,0.040032513439655304,-0.2006177455186844,0.03305530920624733,0.15382063388824463,-0.18472029268741608,-0.25042256712913513,0.00497847655788064,0.07237882167100906,-0.13633117079734802,0.002376390155404806,0.1077817752957344,-0.12871448695659637,0.02279733680188656,0.0707305371761322,-0.14164379239082336,0.00313197891227901,0.05577613040804863,0.030681507661938667,0.11907774209976196,0.08177533000707626,-0.03493897616863251,-0.03596387431025505,0.18545395135879517,0.1303718239068985,-0.032355375587940216,0.031842272728681564,-0.013626731932163239,0.07710246741771698,-0.2081184685230255,0.2754175364971161,-0.020498372614383698,-0.06360585987567902,0.12174094468355179,-0.08374816924333572,0.019933175295591354,-0.0010201043915003538,-0.13096651434898376,0.054005466401576996,0.02727203257381916,-0.22247187793254852,0.14800427854061127,-0.22277790307998657,0.04940368980169296,0.013736545108258724,0.16008181869983673,0.07787728309631348,0.16780130565166473,0.14581255614757538,-0.05420093238353729,0.08386790007352829,0.17538586258888245,-0.015050232410430908,-0.05667420104146004,-0.08491313457489014,-0.17739008367061615,-0.04526882991194725,-0.07419002056121826,-0.15520615875720978,0.2236240953207016,-0.11261654645204544,0.14301614463329315,0.224943146109581,-0.11585325747728348,0.0023706904612481594,0.0848068818449974,0.17617443203926086,-0.05892880633473396,-0.1715070754289627,0.00631721131503582,0.08205187320709229,0.26450201869010925,-0.14917470514774323,-0.19395574927330017,0.05141231790184975,-0.20295099914073944,-0.042776912450790405,0.28958871960639954,0.3066253662109375,-0.27131205797195435,0.13844476640224457,0.03502253443002701,-0.23823493719100952,-0.1493474543094635,-0.09932022541761398,0.21918343007564545,0.1022864431142807,0.0350361242890358,0.07375405728816986,0.049139354377985,0.17024514079093933,0.04728453978896141,0.07577730715274811,0.03656124323606491,-0.09974909573793411,0.09554924815893173,0.02545173466205597,-0.09821346402168274,-0.045521803200244904,0.02540791966021061,-0.0010653450153768063,-0.24923476576805115,-0.2211746871471405,0.1077432930469513,0.1561054289340973,0.029656721279025078,0.21435768902301788,-0.2390763759613037,-0.03800356015563011,0.04237578809261322,-0.12679782509803772,0.10738544911146164,0.062336262315511703,0.009051525965332985,-0.13343244791030884,0.0825289711356163,-0.0630553811788559,-0.21288329362869263,0.0028589419089257717,0.2721264958381653,-0.00109260028693825,0.04252202808856964,0.01651080884039402,-0.02667374536395073,-0.013248210772871971,-0.10505662113428116,0.16913023591041565,0.283132404088974,-0.040886420756578445,-0.0744747668504715,0.20413900911808014,-0.18214266002178192,-0.2141607701778412,0.19670969247817993,0.06993172317743301,0.1439300775527954,0.005102969240397215,-0.09193830192089081,0.059096552431583405,0.06288442760705948,-0.1362902969121933,0.07871697098016739,0.06880640983581543,-0.03056800551712513,0.023082436993718147,-0.041435692459344864,-0.09373310208320618,0.09678634256124496,-0.15723131597042084,-0.08183765411376953,0.10126149654388428,-0.06176239252090454,0.06720023602247238,-0.1486274003982544,0.1132606789469719,-0.08824795484542847,-0.14224672317504883,-0.06398913264274597,0.022795947268605232,-0.13508029282093048,-0.07552935928106308,-0.12465842813253403,-0.22630293667316437,0.051135946065187454,0.07355323433876038,0.0669950321316719,0.13996091485023499,0.22678175568580627,0.1325351893901825,-0.018201246857643127,-0.07086952030658722,0.02393096126616001,-0.11451690644025803,-0.018363570794463158,0.06014631688594818,-0.04895393177866936,-0.20653483271598816,0.13860030472278595,0.1482679843902588,-0.02823195978999138,-0.250517338514328,0.25845274329185486,0.029948430135846138,-0.23270270228385925,-0.06556309014558792,0.05060826241970062,-0.07037664204835892,0.01721946895122528,-0.03826460614800453,0.08151017129421234,-0.06840289384126663,0.027384640648961067,-0.22857379913330078,0.027047228068113327,0.059763822704553604,0.11967498064041138,-0.3000307083129883,-0.27512630820274353,0.1925450712442398,0.07912439852952957,0.16322509944438934,0.2470315545797348,0.18670155107975006,0.0002753552107606083,0.24674534797668457,0.06566173583269119,-0.2524332106113434,0.09773917496204376,-0.1694343239068985,-0.03830953314900398,-0.26864129304885864,0.05076522380113602,-0.06858686357736588,0.13769103586673737,-0.07639121264219284,-0.0032015445176512003,0.10947927087545395,0.10124550014734268,0.12340693920850754,0.16465531289577484,-0.06470923870801926,-0.03606867790222168,0.11579770594835281,0.09424109011888504,-0.17649100720882416,0.11827386915683746,0.09186490625143051,0.09820535778999329,-0.19219033420085907,0.15493562817573547,-0.00042780087096616626,0.07108303904533386,-0.04739014059305191,0.25875020027160645,0.0027272701263427734,0.015605919994413853,0.046267345547676086,-0.13575108349323273,0.1012864038348198,-0.052296772599220276,-0.09112167358398438,0.09372089058160782,-0.16210858523845673,-0.11684522777795792,-0.22987410426139832,-0.04713374748826027,0.034828152507543564,0.18700800836086273,-0.23658236861228943,0.13782091438770294,0.004833127837628126,-0.18832968175411224,-0.1899510622024536,-0.06836455315351486,-0.1435094028711319,-0.0936092957854271,0.20669019222259521,-0.05991292744874954,-0.016387291252613068,-0.08938227593898773,0.1834745854139328,0.06678885221481323,0.08133747428655624,-0.12042390555143356,-0.0840597003698349,-0.12617099285125732,0.12461245805025101,0.2687547206878662,-0.11279547959566116,-0.015334883704781532,-0.06296788156032562,0.12927208840847015,0.14742571115493774,0.09176978468894958,0.020914051681756973,-0.041138745844364166,-0.27852553129196167,-0.2610245943069458,-0.22642678022384644,-0.16069386899471283,0.15528187155723572,0.07279295474290848,0.03850359097123146,0.082219697535038,0.052620191127061844,0.09060421586036682,-0.09287329018115997,-0.1033501848578453,-0.050391145050525665,0.2810991406440735,0.0448501780629158,0.13190501928329468,-0.07924599200487137,-0.1716027557849884,0.004456762690097094,0.01173971313983202,0.030280012637376785,0.07053234428167343,0.12167010456323624,0.0031600736547261477,0.11461257934570312,0.19508035480976105,-0.08672069758176804,0.06347005069255829,-0.05508307367563248,0.15052272379398346,0.19761236011981964,-0.008637533523142338,-0.03605397418141365,-0.0004180102841928601,-0.16441474854946136,0.03162351995706558,0.07780441641807556,0.2241056263446808,-0.002679663011804223,0.10007275640964508,-0.06991150230169296,0.06711403280496597,-0.0912669450044632,0.027015304192900658,-0.2059100866317749,-0.023385275155305862,0.03225727751851082,0.0536976158618927,-0.028545964509248734,-0.05695216357707977,0.06140846014022827,-0.09093981236219406,-0.04902452230453491,-0.022535985335707664,0.017121311277151108,0.08277223259210587,0.10659793764352798,-0.024001799523830414,0.06773305684328079,-0.02892223373055458,-0.011510572396218777,0.1428600251674652,0.10132551193237305,-0.16684305667877197,0.11582254618406296,0.10506248474121094,0.11569461226463318,0.15152987837791443,0.18846790492534637,0.04941149801015854,-0.23811280727386475,-0.05719953775405884,-0.2094985693693161,0.10341697186231613,0.140535369515419,-0.05499114841222763,-0.0507221445441246,0.08219758421182632,0.14451999962329865,0.07926248759031296,0.27130618691444397,0.04405498504638672,-0.02275039814412594,-0.17911475896835327,-0.07702897489070892,0.051248710602521896,-0.019589770585298538,0.16855525970458984,-0.03654567524790764,-0.016450978815555573,0.0020868880674242973,-0.1612023264169693,-0.1779681295156479,-0.1478702872991562,0.08964285254478455,-0.07291655987501144,0.06199062615633011,0.004078259225934744,-0.0007442996720783412,-0.025159785524010658,0.056354034692049026,0.11540019512176514,-0.0329088494181633,0.11720281839370728,0.02700597420334816,0.1327960342168808,0.11560244113206863,0.07542482763528824,-0.1034429743885994,-0.020250417292118073,0.18808239698410034,0.1940973997116089,0.018375348299741745,0.047501951456069946,-0.07260637730360031,-0.02716229110956192,-0.09349305927753448,-0.13455982506275177,0.09866423904895782,-0.08048025518655777,-0.2318851202726364,-0.210165336728096,0.24473492801189423,0.07248970866203308,-0.11826478689908981,-0.004073680378496647,0.19880300760269165,-0.12516789138317108,-0.21128404140472412,0.2412082701921463,0.07440114766359329,-0.15270140767097473,-0.09553923457860947,0.15265507996082306,0.1539999395608902,0.1365232616662979,-0.0863802507519722,0.13182425498962402,0.04427853971719742,-0.029160385951399803,-0.13189035654067993,0.06142431125044823,-0.1956937164068222,-0.037057530134916306,0.015956692397594452,0.22384494543075562,-0.066325344145298,0.1345200389623642,0.02874462679028511,-0.02115730755031109,0.055961642414331436,-0.19387558102607727,0.0898401215672493,0.10093672573566437,0.15293164551258087,-0.19275899231433868,-0.10570035874843597,0.043150756508111954,0.08990325778722763,0.024424981325864792,-0.1659919172525406,-0.015457416884601116,-0.020388975739479065,-0.048146288841962814,-0.04729803279042244,0.05055973678827286,-0.11082589626312256,0.25884556770324707,-0.16646438837051392,-0.1703140288591385,0.22723552584648132,-0.12961013615131378,0.06579385697841644,0.29705357551574707,-0.0403444766998291,-0.19310660660266876,-0.00037467197398655117,-0.03436000272631645,-0.15275399386882782,-0.013950267806649208,-0.09864357858896255,-0.11290200054645538,0.11237893253564835,-0.022352315485477448,-0.03451574593782425,-0.11926544457674026,0.15094304084777832,-0.12251921743154526,0.19199471175670624,0.09596406668424606,0.012097824364900589,0.04651074856519699,0.22658494114875793,-0.09938991069793701,0.1838097721338272,0.03357728570699692,0.14663580060005188,0.05759746953845024,0.007869440130889416,0.02608354762196541,0.07167276740074158,-0.0014200707664713264,0.007418760564178228,-0.2132558673620224,0.238965705037117,-0.06245793402194977,-0.13128696382045746,-0.11282461136579514,-0.09069490432739258,0.04919162020087242,-0.04276414215564728,-0.1791187822818756,0.26120123267173767,0.04752029851078987,0.11847864091396332,-0.25666943192481995,-0.09981247037649155,-0.05137036740779877,0.044413089752197266,0.10327459871768951,-0.057898033410310745,-0.1603977233171463,-0.15359041094779968,0.26691147685050964,-0.02310974709689617,0.2154800146818161,0.15353694558143616,0.02367589995265007,0.07209445536136627,0.16546852886676788,0.1584596335887909,-0.3043525516986847,0.08126673102378845,0.17790615558624268,0.0023616100661456585,-0.12790119647979736,-0.007892363704741001,0.04607674479484558,0.021098555997014046,-0.19983090460300446,-0.01552766002714634,-0.1203901395201683,0.2887641489505768,0.05571000277996063,0.03755319491028786,0.27553611993789673,-0.1370127946138382,0.04503306746482849,-0.20874488353729248,-0.13929075002670288,0.05152285471558571,-0.04841217026114464,0.17117583751678467,0.04058016464114189,-0.23166222870349884,0.06697483360767365,0.13723261654376984,0.06813611090183258,-0.12844471633434296,0.22846655547618866,0.23967009782791138,-0.001539133139885962,-0.019854359328746796,-0.05074157193303108,-0.06478101760149002,-0.16173867881298065,0.1066698431968689,0.1138501688838005,0.26217514276504517,0.1825048327445984,-0.011845864355564117,0.23621375858783722,0.22112469375133514,0.010279208421707153,0.08920888602733612,-0.04594440758228302,0.031118575483560562,0.1281503140926361,0.13845255970954895,0.07175145298242569,-0.1696183830499649,0.0025134149473160505,0.1452338993549347,-0.13780063390731812,-0.05615599453449249,0.1855015605688095,0.30996230244636536,-0.14532683789730072,0.030469359830021858,0.20730167627334595,-0.11633116006851196,0.05302205681800842,0.0010771965608000755,-0.002955119125545025,0.01699785329401493,-0.12855151295661926,0.12469124794006348,0.06622712314128876,-0.0845889002084732,-0.15791986882686615,-0.016710270196199417,-0.08187451213598251,-0.08270226418972015,-0.10975201427936554,0.26187843084335327,0.2261006385087967,-0.07537069171667099,-0.12832531332969666,0.08263888955116272,-0.03201884776353836,-0.07099119573831558,-0.10450530052185059,-0.13646817207336426,-0.14054571092128754,-0.1227547749876976,0.1541639119386673,0.11554547399282455,0.17027579247951508,0.15785039961338043,-0.07467150688171387,0.09593323618173599,0.14421696960926056,0.1568119078874588,0.06019291281700134,-0.012942521832883358,-0.06918413192033768,0.02147628925740719,-0.10567191988229752,0.09809476882219315,0.15648967027664185,-0.04114602506160736,0.00541077321395278,-0.06926947087049484,0.1734810322523117,0.0029405425302684307,-0.15069900453090668,-0.13867774605751038,-0.036765165627002716,0.2264994978904724,0.08563787490129471,-0.19917257130146027,0.1941373646259308,0.12848137319087982,0.15131211280822754,-0.16928085684776306,-0.1947326511144638,-0.15977807343006134,-0.00562650989741087,-0.00290057435631752,0.02160569280385971,-0.08701419830322266,0.12215755879878998,-0.18397031724452972,0.15379811823368073,0.26149120926856995,-0.012548696249723434,-0.1001477912068367,0.05893762409687042,0.15103083848953247,-0.05272270739078522,0.11320694535970688,-0.02013101615011692,-0.08662599325180054,-0.10188822448253632,0.08909783512353897,-0.20182280242443085,-0.07698889821767807,0.2915038764476776,-0.03252061828970909,0.1762622743844986,-0.21040844917297363,0.08701156079769135,-0.10089004039764404,0.14089152216911316,0.20644673705101013,0.027478773146867752,0.12658634781837463,0.17403678596019745,0.11762647330760956,0.16811923682689667,0.2029489129781723,-0.0761088877916336,0.1627819836139679,-0.10692794620990753,0.027561131864786148,0.050132300704717636,-0.02786049246788025,0.13778851926326752,-0.11200720071792603,-0.20478320121765137,0.10514397919178009,-0.0808303952217102,-0.1749350130558014,-0.10870911180973053,0.026609007269144058,-0.1994694471359253,0.1549617499113083,-0.14724645018577576,-0.09390883892774582,0.00484958803281188,-0.010546457022428513,0.12218999862670898,0.09550153464078903,-0.0037456396967172623,-0.04170117899775505,-0.02769899182021618,-0.10526969283819199,-0.1947270631790161,-0.019950423389673233,0.037495408207178116,-0.03199063986539841,0.147009015083313,0.06063203513622284,0.18208914995193481,-0.008996893651783466,0.09809757024049759,-0.19185392558574677,0.059533294290304184,0.12500102818012238,-0.11846666783094406,0.014610673300921917,-0.12921756505966187,0.01964855194091797,-0.20607277750968933,-0.006119029130786657,0.09887642413377762,0.17800216376781464,-0.09756703674793243,0.06363532692193985,0.021672800183296204,0.19751420617103577,-0.004191065672785044,-0.1475561559200287,0.031228845939040184,0.1095341369509697,0.06408502906560898,0.18812313675880432,0.20985670387744904,0.06846889853477478,0.2009134143590927,0.21731193363666534,0.12494739145040512,0.14122112095355988,0.04549837484955788,0.15450792014598846,0.03262516111135483,-0.1320922076702118,-0.13637655973434448,0.0021228049881756306,0.21556510031223297,0.2319050133228302,0.04984018951654434,-0.047258470207452774,-0.015304598957300186,0.12922053039073944,-0.2633163630962372,-0.15532949566841125,-0.10390688478946686,-0.09919340163469315,-0.19072876870632172,-0.06809934973716736,0.009087128564715385,0.1617453396320343,-0.07576185464859009,0.15218813717365265,0.2019808441400528,-0.03911323845386505,-0.13119535148143768,0.2318880409002304,-0.09678918123245239,0.14241808652877808,0.15106238424777985,-0.02809665910899639,0.18144650757312775,-0.27229538559913635,-0.0353827029466629,0.010951497592031956,0.22157521545886993,-0.004590807016938925,0.14247344434261322,0.1773543655872345,0.18663838505744934,-0.026477165520191193,0.08487991988658905,0.20250631868839264,0.0502922497689724,0.15371958911418915,0.03423075005412102,-0.17164428532123566,-0.20855610072612762,-0.13382276892662048,0.21523189544677734,0.1493488997220993,0.04193957522511482,-0.07120515406131744,-0.274669885635376,0.019826969131827354,0.024718942120671272,-0.09900689870119095,0.06228577345609665,-0.04953707382082939,0.004821066744625568,-0.029200449585914612,0.03875920549035072,-0.016373595222830772,-0.23254966735839844,-0.257901668548584,-0.018801992759108543,-0.15236784517765045,0.10319302976131439,0.04614885896444321,0.06946037709712982,-0.0024783778935670853,-0.045749980956315994,0.14770373702049255,0.05811573937535286,-0.0536123625934124,-0.1141616553068161,0.09823453426361084,-0.14352726936340332,-0.1436213254928589,-0.16264714300632477,0.05969487503170967,0.01577000319957733,-0.2732140123844147,-0.15595315396785736,-0.08238137513399124,0.027008360251784325,0.0005142339505255222,0.12892131507396698,-0.06563219428062439,0.017890634015202522,-0.08432997018098831,0.2728361487388611,0.17177385091781616,-0.11602485179901123,0.14625297486782074,-0.06072114408016205,-0.15881173312664032,0.1987987905740738,0.015345476567745209,0.13601455092430115,-0.15794490277767181,0.11591152846813202,-0.1699567288160324,0.08842824399471283,0.2875889241695404,-0.21488332748413086,0.1271684467792511,-0.05402827635407448,-0.2095629721879959,0.03059401363134384,-0.09158209711313248,0.05507328361272812,-0.0010772220557555556,0.13630208373069763,-0.09079555422067642,-0.03175199031829834,-0.07099904865026474,-0.04790114983916283,0.05665243789553642,-0.14562582969665527,-0.0380614809691906,0.17515511810779572,0.03342070430517197,-0.06541774421930313,-0.06153145805001259,0.007179500535130501,0.16697701811790466,0.09238243848085403,-0.13989605009555817,0.0002873378398362547,-0.10971927642822266,0.057050734758377075,-0.10319887846708298,0.05812590569257736,-0.030297808349132538,-0.22745783627033234,0.08350948244333267,-0.07695120573043823,0.040640342980623245,0.0743643268942833,-0.06157970055937767,-0.0397288054227829,0.08311726152896881,-0.16697269678115845,-0.025992529466748238,-0.032181717455387115,-0.05331645533442497,0.12999273836612701,-0.14682984352111816,-0.22709119319915771,-0.09560423344373703,-0.055780816823244095,-0.16407229006290436,0.10216879844665527,-0.11701293289661407,0.10854155570268631,-0.0935489758849144,0.18030261993408203,0.07329195737838745,0.053455986082553864,-0.002052206313237548,-0.131917342543602,-0.08973619341850281,0.13237738609313965,0.08525656908750534,-0.12727268040180206,0.14949311316013336,-0.007647256832569838,0.04368113353848457,-0.031140409409999847,0.03282145410776138,0.049301426857709885,0.02854500338435173,-0.17633455991744995,-0.22518211603164673,0.08270634710788727,-0.03583117574453354,0.01241869293153286,-0.13607710599899292,0.04092956706881523,0.11539994180202484,0.022129282355308533,0.21080033481121063,-0.03370281681418419,-0.1512419581413269,0.062404096126556396,0.19041156768798828,0.1790594607591629,0.16222362220287323,0.08227944374084473,-0.0695449560880661,0.17104002833366394,0.2843921184539795,-0.08091361820697784,0.1772628277540207,-0.032820433378219604,0.1844569891691208,0.10805317759513855,0.05281080678105354,0.15159529447555542,-0.2897728681564331,-0.16033555567264557,-0.17180415987968445,0.09386376291513443,-0.07125452905893326,0.14490218460559845,0.0649561807513237,0.08314153552055359,-0.1010148748755455,-0.01271500438451767,0.21239930391311646,-0.19368383288383484,0.12008512765169144,-0.10879932343959808,-0.28543636202812195,0.051633283495903015,0.05539262294769287,-0.10560572147369385,0.1818569153547287,0.042182885110378265,-0.035946376621723175,-0.1710611879825592,0.01991122029721737,-0.0934751108288765,-0.13721981644630432,0.04420865327119827,0.01761593297123909,0.07531416416168213,-0.11886005848646164,0.13073886930942535,-0.07528406381607056,0.10725794732570648,-0.03352644667029381,0.17718610167503357,0.15460719168186188,-0.027314316481351852,0.0879586786031723,-0.08351653814315796,0.04898552969098091,-0.035970840603113174,0.10489524155855179,0.041203904896974564,-0.04671700298786163,-0.17410224676132202,0.055007658898830414,-0.054023779928684235,0.011463195085525513,0.1561172753572464,-0.1572321355342865,-0.038639020174741745,0.05489258095622063,0.097785584628582,0.02520264871418476,0.1202872097492218,-0.08121515810489655,-0.07572083175182343,0.10208568722009659,-0.04568342864513397,0.03860931470990181,-0.1431955099105835,-0.017921393737196922,-0.05868755280971527,-0.15300332009792328,-0.04081854596734047,-0.1473185420036316,0.10327641665935516,-0.0584716834127903,-0.0064289383590221405,-0.11966992914676666,-0.020215395838022232,0.03980657458305359,0.07157036662101746,0.10194627195596695,0.09841419011354446,0.01292883325368166,0.02453955076634884,0.21017414331436157,-0.061644114553928375,0.14883306622505188,-0.04087736830115318,-0.22760331630706787,-0.05226350575685501,-0.13123901188373566,-0.014475952833890915,-0.1764596700668335,0.21620206534862518,0.10717862099409103,-0.10871775448322296,-0.007739885710179806,-0.23384252190589905,0.02145320735871792,0.05013410747051239,-0.056844331324100494,-0.14899280667304993,-0.11032361537218094,-0.0004605138674378395,-0.1408539116382599,0.14504064619541168,-0.010928183794021606,0.042799148708581924,-0.013490967452526093,0.11913356930017471,-0.07199377566576004,-0.010632090270519257,-0.1371949464082718,0.18336845934391022,0.04278694838285446,0.06677260994911194,-0.024334747344255447,-0.08612208068370819,0.05604683235287666,0.12545983493328094,0.11418354511260986,-0.2481735497713089,-0.018516257405281067,-0.10523874312639236,-0.00017106911400333047,-0.11423961073160172,0.011081049218773842,-0.18941010534763336,0.24442610144615173,-0.22483837604522705,-0.0352398082613945,0.07684841752052307,-0.09899839758872986,0.0230680163949728,0.19636595249176025,0.26557204127311707,-0.035767778754234314,-0.012411237694323063,0.038276344537734985,0.15675587952136993,0.16332708299160004,0.09791591763496399,-0.12416313588619232,-0.12773698568344116,-0.030573086813092232,-0.15905117988586426,-0.0970458835363388,-0.045261163264513016,-0.12087640166282654,-0.14087364077568054,0.105385422706604,0.05473220348358154,-0.13126270473003387,0.23887644708156586,-0.042203523218631744,0.05503825843334198,0.18515560030937195,-0.05899440124630928,0.032636191695928574,-0.06848559528589249,0.07489164173603058,0.06066807359457016,0.04607677087187767,-0.018115771934390068,0.1276027113199234,-0.08465983718633652,0.03229435160756111,-0.19574375450611115,0.16545644402503967,0.20915323495864868,-0.05152871832251549,0.10840044915676117,0.09549808502197266,-0.09014122188091278,-0.29681023955345154,-0.00043366558384150267,0.02332896925508976,0.126203715801239,-0.2671825587749481,-0.013906385749578476,-0.10966961830854416,-0.08645094931125641,0.042096950113773346,-0.07665038108825684,0.09627942740917206,-0.2862962484359741,0.0001701935543678701,0.1725693941116333,0.05669618025422096,-0.1089552789926529,0.04555463045835495,0.005405290983617306,0.15340115129947662,0.11126059293746948,-0.09262237697839737,0.016858238726854324,0.00417872192338109,-0.016283834353089333]},{"shape":[32],"data":[-0.011144173331558704,0.024122200906276703,-0.013262119144201279,0.03629165515303612,-0.01338562835007906,0.03109261579811573,-0.025135662406682968,0.009984410367906094,-0.0221744105219841,-0.006485039833933115,0.011988847516477108,-0.0011105455923825502,0.027950439602136612,0.024239227175712585,0.019297922030091286,0.04126938059926033,-0.022680703550577164,-0.015349672175943851,-0.005389882251620293,0.03518075495958328,0.04006841033697128,0.038537122309207916,0.03897089883685112,0.0038155431393533945,-0.034758999943733215,0.04142772778868675,0.034799303859472275,0.016973145306110382,0.04841068759560585,-0.018323570489883423,0.002564840018749237,0.00021406140876933932]},{"shape":[32,4],"data":[-0.11945691704750061,0.027094166725873947,0.17573031783103943,-0.1438877433538437,-0.21629735827445984,-0.4133700728416443,0.30508947372436523,0.16013413667678833,0.02303796261548996,-0.2445724755525589,0.402911901473999,0.1847180277109146,-0.27852094173431396,-0.28136271238327026,-0.05733078718185425,0.0736016184091568,0.03482285887002945,-0.021205617114901543,-0.3023552894592285,-0.07784726470708847,-0.16678637266159058,0.041593145579099655,0.37797003984451294,-0.06268896162509918,0.18452459573745728,-0.03657294809818268,0.02481880597770214,-0.04152870923280716,-0.0770643875002861,0.0790085420012474,-0.2638128399848938,-0.35567596554756165,-0.13114315271377563,-0.17525345087051392,0.31992682814598083,0.06418979912996292,0.0802215188741684,-0.17462286353111267,0.41913217306137085,0.08067676424980164,0.2569181025028229,0.24682949483394623,-0.31494516134262085,-0.03725900501012802,0.05268390476703644,-0.0392940528690815,0.37024664878845215,-0.3640272617340088,0.08893897384405136,0.1303229033946991,-0.05408519506454468,0.15650801360607147,0.11066576838493347,0.21037884056568146,-0.04903208836913109,-0.08927822858095169,-0.05810397118330002,0.2460370510816574,0.1204036995768547,0.009637907147407532,-0.19741304218769073,0.3652575612068176,0.027902644127607346,-0.08668065816164017,0.2647324502468109,-0.061142999678850174,-0.21400919556617737,0.17746847867965698,0.34419912099838257,0.3019353747367859,-0.3888421356678009,0.2600862681865692,0.14454232156276703,-0.1686607450246811,0.28883758187294006,-0.2710624933242798,-0.05956699699163437,0.025747530162334442,-0.19622652232646942,-0.28831714391708374,-0.12399072200059891,-0.07658392935991287,0.3227773606777191,0.010197100229561329,-0.04081040620803833,0.2239874005317688,0.38873887062072754,0.03365621715784073,-0.23463720083236694,-0.016195468604564667,0.1395149677991867,-0.07612109929323196,-0.26717299222946167,0.02330472692847252,0.13360853493213654,-0.14742672443389893,-0.09681706130504608,-0.14902372658252716,-0.11524691432714462,-0.1011715978384018,-0.1049366295337677,0.23153729736804962,0.2466944456100464,-0.02827978879213333,-0.13608773052692413,-0.014942471869289875,-0.22792959213256836,-0.37524569034576416,-0.16731126606464386,-0.060467734932899475,0.16215649247169495,0.05845583602786064,-0.08513230830430984,0.15017785131931305,0.04165029153227806,0.08911477774381638,-0.047301266342401505,-0.12975965440273285,0.011204524897038937,0.2199917435646057,0.015037653967738152,0.24418111145496368,-0.3020012676715851,-0.13627414405345917,-0.03538292646408081,-0.30013492703437805,-0.11419989913702011,-0.09641698747873306]},{"shape":[4],"data":[-0.044516660273075104,0.041649073362350464,0.01880122534930706,0.01869828626513481]}]}